function [y1] = myNeuralNetworkFunction5(x1)
%MYNEURALNETWORKFUNCTION neural network simulation function.
%
% Auto-generated by MATLAB, 22-Jan-2023 22:22:47.
%
% [y1] = myNeuralNetworkFunction(x1) takes these arguments:
%   x = 8xQ matrix, input #1
% and returns:
%   y = 1xQ matrix, output #1
% where Q is the number of samples.

%#ok<*RPMT0>

% ===== NEURAL NETWORK CONSTANTS =====

% Input 1
x1_step1.xoffset = [0;0.075;0.055;0;0.002;0.001;0.0005;0.0015];
x1_step1.gain = [1;2.7027027027027;3.36134453781513;1.76991150442478;0.708340711882415;1.34498991257566;2.63331138907176;1.99302441454908];
x1_step1.ymin = -1;

% Layer 1
b1 = [2.9406240964261280979;-2.655428681805422908;2.8345021801416616647;1.9936948399066434234;-2.6215034677065127688;2.5558815097433615904;2.334995371948153764;1.928326622826643133;2.4158141292395289845;-2.3186797495314679374;2.0774732521757797166;-1.7866596462929749123;2.388033128484695844;2.1137228534992131834;-1.8572682305058032526;2.557234326420837256;-2.0498028168723987363;2.0105656203970392326;2.0311140109463914349;2.0353780183809973003;1.7572645899424157445;1.6824826747738514943;-1.6356806167433401988;1.8762904328784841823;-2.0307740604262805029;-1.6846340914058919314;2.0038768144001464222;1.188928870660213466;1.9328543941543760987;-1.2271092357686426144;1.6841265220544994197;-1.4769531346208888412;-1.2953103771613441175;-1.6006299428376580263;-2.1550961719409968964;1.4005062994884820426;-1.3361582571281964693;-0.84421890452252512649;0.56726560461972885818;-1.7376350175502786044;-1.7452057263146003585;-1.7483515610059188194;-0.58156627550614403699;-0.89549921737239979169;-1.2898673382360452688;-1.2903430981606422989;-0.76346894180051294576;0.71856445837859883596;0.93867899629891826674;0.77426117306836439447;-1.0663586274155569811;-0.88875730119139262353;1.0624922893075579022;1.1080897737765929012;-1.0983414122862347195;1.5617125769930457757;0.53166782072369611623;1.3187624822943411207;-0.3758776423932050359;-0.22950756794943791284;1.1398057169216100348;-0.55569174339061977452;0.5254625777917487639;0.19204422265896511912;-0.72016812197603563561;0.50543176824212376896;-0.89738488718791553644;0.657937383097065287;-0.1328243313899778455;-0.59877706232359784178;0.56723311189255243292;0.25066823966982948457;0.26169040331540976974;-1.074651625475584904;0.23074433832078089512;0.36647629667430103861;0.26182450612522856215;0.65832149986207966208;-0.2895931587533332463;-0.65490729611378162289;-0.025921653927623099223;-0.46092100564081500691;-0.38447507657596713404;-0.2576694590209525626;-0.72221018113447665865;-0.89370990663970428791;0.43839445952799593886;0.26940985766672531643;-0.20181713143294705004;-0.65832383838392893871;1.0310905212603389547;0.85861401139351445355;0.40805211802868557314;1.2534886280720745066;-1.3900283588813289182;-1.1988780063727093594;0.64623358457568669255;-0.29467370461821851269;-1.5313747361850109652;0.98725424067153666474;0.60576126212667336102;1.0045374166096583401;-1.0091186372120828363;1.1855027974132408275;1.064256378203026765;-1.0441818981409864975;1.5113860063575714765;-1.3559784283231111068;1.3225369442906091955;1.4843538757855170296;1.2310134596112258798;-0.76342680454524614042;-1.2956309113407444844;2.3716517065671385289;1.1277932990704144789;0.90307485269229892388;1.3364535845540188586;-1.8025798726862316546;1.2703176045984769793;1.2383910339479036189;1.6739996468292472898;1.8432157528684196546;-1.8037347306901181376;2.1487941889916304383;1.7686856337309486698;-0.85421108788150978963;-1.4372759408144435422;-1.8864533487664718603;-2.4316771990988956809;1.8192783282507063447;-1.9086545383124213782;1.3598783202377444645;2.0114365952271708871;-2.5802826952565096619;-1.9588153096593199365;1.5999505699729890118;-2.2331446808048931452;-2.1705070709708800258;-2.2359518718228938994;-2.3649390442088948916;-2.2276356604725342514;2.7723738689332244611;-2.5881079743667361193;-2.3142121505449653185;2.6309644482840894852;-2.7507401022811186486;2.432454574920141166;2.4471853448054878832;-2.3045315833734387745;-2.8159863332563070948];
IW1_1 = [0.019911591894021932192 0.7985027260420702877 0.55436045889358265271 1.0179602653915116317 0.55502630777378503257 -0.132436513088748542 -1.7942517061295994996 -0.6510858600301516752;1.0839767785308660475 0.92754328296278254484 -0.3361507614951405043 1.1183732722029529061 1.1196783551216025199 0.52617976761693951993 -1.1510002159344514538 -0.19628266170309072169;-0.91564504255867484872 0.62980287866627304716 -1.1538877762313264341 -1.5466748346394081359 0.36234907298789731378 -0.55011031174911961816 0.63140855320865840739 0.76082689872995001856;-1.3352942938206555645 0.88842260150266638696 -0.4551421700267784809 2.2388549731733204951 0.11461644182254407398 -1.1104502521701251627 -1.2127476492075399683 -0.29518372570566553392;0.59505702855228448378 1.468871648521992368 -1.1254356254778987712 -1.1376140153739666694 0.12387660158154109591 -0.67475919878909862426 -0.13488648449572476773 1.0535161919108482209;-1.4179393504334554255 1.0709675406425558375 -0.56819139141729568809 0.91215454650154659255 -1.4290735350372227863 0.77835355900714997546 0.21140294939303214128 -0.75720266888210419065;-0.67681420070276376855 -0.68206731619993132831 -1.6174549132403053253 0.16935535807222126814 0.89632710119751068945 -1.3441742038891715261 1.2794884694310777462 0.90553729095557555784;-1.6079368184050342183 -0.81520998891222617999 -1.6218906264648107474 0.82352103752135841219 -1.1442546269185769336 0.11362758505346834403 0.053964465210074412382 1.5107266181434553243;-0.54250256354475256959 1.2496135794305780475 -0.88784662206707509746 -1.0325199597649110661 1.1475427899262899967 0.094182527833325660471 -1.1298132158177478512 0.58382571056238696805;0.35243638857082154603 -1.4003536325114287475 0.48033136436560530669 0.62774145185563112737 0.57078623629196223455 1.3026497460495345404 -1.2241369492325384627 -0.71550896396982743841;-0.81965805029658622693 -0.52016050487417442305 -1.3902995777044990788 0.015344840690725086718 1.6232568184637312658 -1.3907009536749674883 0.67979606035024897626 0.73282001168308474881;1.3684629911867989271 0.71510172442050645714 -0.86349517999913383282 -1.0534481004890072775 0.89771648948595406114 -1.1555420893831080953 1.3308648274686061264 0.11179729739675914324;-1.28588244478984004 -1.2391020395633398632 0.69336563869458855969 1.0206168845385001909 0.39097528037630180364 -0.079506694007313985506 -1.0802343539523209248 -0.72465509700477970245;-1.0807817646237047882 -1.2687433797288580895 0.98235560845463099078 0.27673220288800876032 1.0865559513964688776 -0.69640319827763519367 -0.80406380721461956362 -1.0878223026805435847;1.3090632721341395328 -0.96267927389411078742 -1.3733718327691064598 1.4592623903946901898 0.22245889001497523574 -0.050394307656921218108 0.60965111315403353043 -1.1390956093612574218;0.66552529301229801373 0.353984258620269443 -0.48402934730959479293 1.9210846033288808687 -0.27867456941216051103 -1.426829273584711899 0.87587338006599990692 -1.0098789192925543556;-0.060553148968458613 -1.4170082148018781076 -0.43659574200918105369 -1.3713177959994595767 -1.2779238283105767149 -0.48885832144133151145 -1.3979954343944791528 -1.4924241045644173198;-0.67234490816741321328 0.077351301618996254339 0.69867249280498777697 -1.1784362753613637498 0.89084231533800872782 -0.81272383279504267772 1.3381957260798242881 -1.196715359602953388;-0.54889364318728406378 -0.55307506211773194149 0.67533741964071070107 -1.3885807309979387725 -1.3898762487316584924 0.74485741496548052432 -1.0872505934213703149 0.4570875175791969669;-0.89964762755653882031 1.7248892686101351401 0.21724014429172036622 -1.0814306434281013569 -0.5783220828590261986 0.28905830755827310874 0.22166312537398025206 0.84928434865608126714;-0.47870169163597536821 -0.50913039870286191935 0.068266468844088906698 0.36157697489272977442 -1.0741718554186181489 1.0176910718990495042 0.51426960382767383795 2.8588283497873643313;-0.925544026789350327 1.5941448752841853587 -1.3511114611870971292 1.0690401581391171248 -0.89949849416525506918 -1.2945380692732009198 0.80475974765100910524 0.73248151681707229788;0.090704271773488290287 1.4637014177745590882 0.67479847884419852377 0.17468130473758064491 0.84315616969215800847 -1.4073098846281246743 0.86279428673831193297 -0.39077570428225333332;-1.0518747597100379654 1.4021029032376628454 -0.78485386168175785837 -1.3286624353980287516 0.28568249184317351386 -0.3037831385080282387 0.69461081697906190691 0.78965072913014544564;1.3044300835878170908 -0.13824412625824164524 -1.3283751428150696317 -1.3507921650392351598 -1.2681701355359853434 -2.1302610296667330303 -1.4166948958402425518 -0.65549724462783176548;0.30299996480898072626 -1.200845169449000549 1.3041158662897602838 0.73357036813354781213 0.70296885243351359129 0.61829871898168264899 0.85539298443933453608 -0.95120444876123022571;-0.94114465632861055155 -1.3897270192108084341 0.50176802110046947458 -1.2072146222435489182 1.0060457602542378641 -1.224827236950351006 1.0243945059103072293 0.66168111627622161475;-1.9949762075440413689 -0.10159097550182741299 1.8477771800750502074 0.51362923533258642017 1.496889531854127986 -1.0988662683461092318 0.40610041029283705516 -1.88512443141654229;-1.6496177840159913508 0.46157775699935188474 -0.87136845419085839914 -0.39143389028486902381 -0.66763162290285726908 0.98511079907364895725 -0.23907600759105962496 -0.066139989429544479571;0.92435743639469380994 0.2650717396850513774 -0.42303501069351162611 -0.75844543564469824037 -1.1656687581501241624 1.7137274718816652985 -1.6622140933287992137 1.0045287354512779654;-1.333428507875463298 0.43872880396555208327 0.13261441114931774021 1.2282406768632196936 -2.1384951816609873987 -0.68855712116566236691 -0.21601748308750948202 -0.1578073611371008933;0.21612938128375902558 -1.2581972112350363613 0.30138896848886626012 1.4891956992479526978 0.93792617789372256798 0.15913760588585906808 -1.2131352037023939161 -0.66459982119612648344;0.10868182889217169185 1.2302764237108045897 1.3479008808134040898 0.04021700541744726437 0.96788950265754425395 -1.4478654995972344288 0.24037676923625270198 0.43401982209214823305;0.32164942556609171787 0.51468645935037948824 -0.77848304225470976725 -0.14047202255044047292 0.63796026379627923664 2.423196681788412743 -0.89144923836571365872 -2.2070061674860923517;0.33250328259637945694 -1.487860894634835951 1.0071705616784893955 0.56872515935710998836 -1.5208763852235225311 0.65905529209051738615 0.31330211062495777474 -1.0491042200843418986;-0.40132138837983916124 -1.3775953133947445028 0.093708240825585001343 -1.5081319000917412509 0.74068903973896405013 0.824909897207182774 -1.0164263847768617577 0.32389510190029974224;-0.01271410415667974074 0.40804816621262079979 1.2025882553488926874 1.2664023940858535333 -0.25601347572106947226 0.93545666461917142964 -1.5422122989189397391 -0.29553152497617651839;-1.3101643550085220191 1.4849995822012442837 0.9098376864189895441 1.4211929935332521246 -0.31837448008598451255 1.6714931788466567131 0.73008035596460119088 0.11660979431079915303;-0.46160147905032977711 0.076153814535696806587 0.71120757543963508684 -0.71706597678892780579 -1.076733183378346892 0.95540893566906914813 2.1299716192853144214 -1.4056502784737059386;-0.23333170947097586767 1.6097947743978695545 -0.27991617501874788143 -0.6351195664417310649 1.7473261593074296272 0.2090221231331156615 -0.63223957105761230402 -0.12848854099419224073;1.3329008311166949952 0.1925921088412958504 -1.1984133022214726871 -0.84543842164266191919 1.1050362003819456103 0.89491336218590034068 0.74390760633074914931 0.48980529177655213191;0.80261023132265330027 0.6568497769958282495 -0.92384175794988898645 -1.5308569620578946768 -1.4436133966208024582 0.8401888033393145605 1.4409744513109854491 -0.77046799432785373352;0.77724044029368866138 0.78498812504512249788 1.0720811499149984769 0.20858197666558139782 -1.9982768500838150594 0.40043657608277177795 -1.5008156250879907123 -0.6014621756150947407;1.1837165681299564035 -1.426799487396067434 -0.13934557424665011682 0.54853897423375119757 1.4058306481384394981 -0.2134805673918474811 -0.67125936829640098225 0.96203336847618881045;0.33911915735073905331 -0.8233088354201231196 1.7943484900650104041 0.44797048516253484829 0.42174390579701881432 -1.2210976792595675811 -1.6910849783973358473 -1.0655933789495970476;0.36560035279618952053 -0.91899214256062933259 0.62382388795214627208 0.58546231911259738467 -1.1812325448337532841 -0.75425941132289209268 1.2301630335503817015 0.43744826964215954845;0.3858291935206245582 -1.2608517045542682045 1.354705370887419269 -1.1704649599784957559 0.77268293165255086397 -0.12770119652534053789 0.88058110778350073833 -0.36405617853019411889;-1.2397613352071303883 -1.1877120549816018169 0.5285991942248876585 -1.2258705467309589654 -0.069449404503965167512 -1.0845488853645417482 -0.55304164118761456326 -0.9470682337058936584;-0.83285005023821478964 -0.4603295713354556562 1.1189810362347694106 0.90867696211764525938 0.44169714359577677554 0.073625119333811245292 -0.49796350743176415188 0.48974292883498204976;-1.8573953514187424574 -1.1400197782236283217 -0.43837688506141553324 -0.88367258119391478566 -0.78821246353149954089 -0.77420925440359111835 1.6675734409426334892 1.0112540883973211159;1.6127312255498604809 0.20215669684125839312 2.063118492835031681 -0.33714461078110408154 -0.22469881474460212667 0.068371229263350208338 0.27651194586570593259 0.1488718115362360761;0.56051221045959476186 1.7015011611486992038 -0.086619404413983247526 0.9238012010800668028 0.19277539286018191556 0.19777392971545651457 2.2818292222163343297 -0.058721311299772448178;0.058619663404401702034 -0.55773888603888233106 1.1646576256008918104 -1.975103553144973878 -0.7676187192493474365 -0.050806241023026964265 0.53223851296691160329 0.58649278694312856341;-0.75556926766506704585 0.74264920326780059501 -0.96173984818937774399 -1.5272460705205479492 0.13407662526823388438 1.0159022077616015611 -0.63100553979059259557 1.1364387389965562303;0.75776376254708266433 -0.76111664043618565412 -1.5752921524329772662 1.080648912543769713 0.94012534802491820596 0.4042517056409395404 -0.44684295306062954412 1.211577174937701562;-0.44798611956335776529 0.66064173007542770222 -0.28407051713446018759 0.45455310896314515823 0.13738341997299752251 -0.56441890489566548528 1.2122957595823999899 1.4860195229567128017;-0.54196196188014245099 1.2723924807105289059 -1.1474596370700436143 0.34864504358886411195 -1.5250177849930541818 1.5369958506736298709 0.12644952322176547521 0.4321799443748308156;-0.64119598320564874516 -1.2400762202206010443 -1.3700771828093443183 -1.5444018235877441381 0.0019978496164464037976 0.91834696354594747003 1.5313539584620661227 -0.96776864556120556493;0.69308494294719402706 -0.30874861438045503315 -1.0562154675879931176 0.3901614895786203463 -0.34488070961941985626 -1.5240513849383139355 -0.81658421734061359398 -1.7186885841426691179;1.2281053851453382908 -2.1458129840220490081 -0.58677594071926719721 0.56302624912882892616 1.2480832328419388944 -0.62346184545812699529 -0.49189674292057605776 -2.1635552366071579833;-2.3249067682472701613 -0.52597517366955637286 -1.6532705704948289505 -0.41573353824092557085 0.50229935479321818903 -1.3375410667514271434 0.12153264567546212538 0.43881277035375898521;-0.51909023534747500417 -0.83984636236887522109 0.95039802997354383418 1.0454259644142942509 -0.91550293350472400355 -0.52170150117533642398 -1.6862081479996360311 -0.77398366859465850265;0.34403975496955957469 1.1541421592804133045 -1.1765645847478873876 -0.90087951368644036965 -1.3003906634785944441 0.67744087534355557079 -0.30933278857316681698 1.0766940672611446939;-1.2618282341491668941 -0.27910804634792807377 0.44385278105215586475 -1.0235774482557664644 0.73708202106069287129 -0.21194984231243202411 0.75273647822522893325 1.6877106409587887548;0.58768025919863375872 -1.9852206696770746674 -0.93564043718508238534 0.59552326807739386361 -0.42139113927293625483 -0.54282954076734102333 0.71234031417672316611 -0.6181631803402891645;-0.082493386114771055651 0.25099235471155217914 -0.36764685007929509553 1.0520914479969567523 1.3922963531657788216 -1.9991409270669802112 0.69507549548449476529 0.079078955171082959685;0.67935590000991219473 1.2056535979260036839 -0.52767492362923407168 -1.3945977586343398791 2.1648144848900559012 -0.11571926734664095271 1.5620893179048478405 -1.0402675381284294254;0.25629694080645198939 1.2307574044505458222 -0.51399765135731745325 0.24954448675989171491 0.73426925244580909524 -0.50547149584133754807 -1.5805804916196739551 -2.0494461210224028669;1.4790446776312111687 -1.2544691635194487045 -0.71104603423823931063 0.41635094136535577558 1.5207116231221087244 -0.51579258919666570726 -1.2402575937458115707 1.3443091821070489722;1.7585933648281411035 1.5644926167945725215 0.68889786468824298904 -0.38322739284561024853 -1.644189879211373384 -0.38724944277241785118 -1.2834436139192757498 -0.74063136128960771476;-1.8760575401991703703 0.43490742306786162041 0.56345428294240773592 -0.089213735964757248653 -0.063956414875174963375 0.78361439691804812835 -0.014956575309924930936 -1.9178334012005546771;-1.0887839248552806382 0.87860865557189815611 0.19116660031818721865 -0.31030484847212325139 0.69048525089658974174 1.4944640234235901932 0.41092452969339382518 0.35038629072861854352;-0.47399144144814980839 0.1090928166549671452 0.80277980027542261698 0.2416421874942247805 0.91835386121841422469 0.49480960731212392245 -1.1603839606011350227 -0.83030491258142191668;1.7707597695364740709 -0.27698117826914486761 0.43540611492641884128 -0.83677702297849776425 -0.45161603513836762192 -0.91229137706512974937 -1.3043666921489438515 0.43222774306081929163;1.4079011300240324989 -1.2354582178700530548 0.66284623049754065605 0.75799924799623297211 0.20700907868455381555 0.059573226884973955186 0.65051576348305462094 -1.2117430120898036172;1.3781625901087937169 -0.091308752066882201137 0.58882641989180184439 -0.16176220070763069891 1.5396904918063363255 0.91243600707965988317 -0.70431077802801078658 -0.70572142857672193195;1.1991407815809209669 -0.2851703236177985934 1.0483506934942359301 -1.1227329196069764095 -0.37721707875654680864 0.20322255251902948681 0.45405356145386516209 -0.092431000072521973809;-0.37601576079679521758 -0.89726831128675488269 -1.0259492314846960781 -1.1257275166889488816 -1.4434381539678380335 0.051240296100189666739 -0.01223843508442622359 1.1611222502007050306;-1.8492038467160267778 0.97478438201074568692 -0.91879067950320669755 0.058691146210959346807 -0.61769305373076710541 1.6096542708619605566 0.18467355468609528146 -1.0236444748066932942;-0.19727215898565589325 -0.69605973511728236325 0.70323428485344963157 -1.6931731523207329548 1.6255656850821886827 0.84823022153451632654 0.31976265180650687014 0.4206907961359938608;-1.490502483397046829 -0.44693491063347667858 -1.0269179669775434505 0.8439454188202554219 1.4202978438039750575 0.41982601741250730187 1.4141286794117366998 -0.15604443107605173169;0.41224446316183394057 -1.1785086067039287627 -0.45720567662870009729 1.0082102250062026094 -1.2225139315453346089 -0.15022212861622158409 0.79433516991897923365 0.11576227605499710138;-0.26660725745850549773 0.98750339882134752223 -0.81643999446765946892 -0.77682488588599973856 0.64886922393138801723 2.0000319292681800754 0.36569508336079487032 0.7465487673815026648;-0.78388829667350834463 1.1260228759735255721 -0.37918755447161817118 1.016580769862529765 0.13284200767934278842 -1.306298848688033809 1.4109137826908848545 0.89362043559415504923;-1.1890492213185674952 0.54233205949494855957 -0.42989535900738734542 -0.88927744830421207034 -2.6795001802297164772 1.2561244465587142471 -0.68547957054678554378 -1.6934120672510961647;-0.013879626911703361186 1.5244676434363557682 3.3392998753523555067 0.98753394589254361868 -0.62008272781750450875 -0.92798137560889304432 1.4524118224851778614 -0.36157375805757091536;1.6364736541943063486 0.054654946314164891408 0.607187105684149242 -0.55604303028367685346 -0.53150786140486827591 -0.7285918422179095133 1.4613019273766585382 0.92006502065452655525;-0.00011489360312742086245 0.15739012843300800859 1.3546892130469376792 0.34887549510193471836 -0.41084260296843849725 1.6137065521605233887 -0.67081698483777496556 0.63750208362508420379;-1.0072222507453829632 1.9010394399860959247 -1.8638075424411235659 1.1564093203929948217 0.61777343707497334169 0.028849866754410188885 0.05196790070048032395 -0.14862345249530603541;-0.50054368865250531417 -1.4144435807638418012 0.95739210471346158915 -1.3829055453921201835 -2.3110883902935217549 1.1422995225871122038 -0.97931747993616125036 -1.3138045638347612964;-0.17190440960946340443 -1.2240457284417287642 -1.9982932013779717284 0.39054973382077567967 -1.0816367148178602786 1.1501565941633029588 -0.50860719389043773653 -0.51317990037748162369;1.226663134327893534 0.63021123332668493866 0.73805000202521731101 -0.43418613623354329611 0.49170015481712153749 0.73013835661319725912 1.0965594273229475331 -1.1094716327922198307;1.9753179191807306303 -1.138458223183080209 0.40784720876535501821 0.86230359471593864829 -0.056390619147563027236 -0.6983062788260456788 -1.7307923033885612707 0.04754070587532253922;0.82568311064661137344 -1.5934461014779972565 1.0437063618881943228 1.3271219842750605622 -0.54991205071375093283 0.55190478864890624155 -0.39548596650590389645 -0.012121858979596935799;-1.0429046807777135886 -0.61506542371095218602 -1.6932661868850826803 -0.40202047889974601436 -1.1388818743728694738 -0.95841678291326859451 -0.57706143891681949132 -1.5539752242101882995;-0.45202470626430862888 -1.4837095894566960652 -0.50130913313512348584 1.695302328793751423 0.19827979149587821039 -0.79122156542573363058 0.94178398568045473827 0.54603105663319906338;0.97799107570398124967 1.8003291693246405991 -0.82785451928009956557 -1.0225198540549442772 -0.41592620087885184832 -0.73198851332273584536 -0.46011845425368036455 0.71074697772267281248;-1.5803810431683706916 1.2421693329609895251 -0.30347635801888089846 0.37603020929584168863 1.6615625542929086667 0.21199498867998611829 0.25769583315451899397 1.0513206030043942274;-0.78752024518348118232 -1.0319125000655238189 -0.74201422295798291628 -1.0252183021710841171 -0.96579578630997697797 -0.77252925250451354167 -1.2203911019096485013 0.31582235271861314185;1.0340238081332053799 -2.1900131260647364151 -0.5415031302295743032 -0.14257780840954473178 -1.0397841428077818637 0.81660406411363140045 -0.36051053844194169695 -0.0056120848907832499367;1.1246131219942263613 0.66008735055826284199 -0.39630997579989940549 0.85250545682977896256 -0.65465218495078369987 1.049900051703881898 1.3160967516007762157 0.30099881236319092626;0.1862609196714265225 1.2398207180140223826 0.42718245263341170226 -1.3977253345051001698 0.91133190122591811733 -1.2288067935343383041 -0.29333999213717038002 -0.96500275310843186549;-0.63722268658597691626 0.34013396170474702318 -0.067121033614623584751 1.6579652337205568191 -1.9740284866654953522 -0.60519836204855392836 -0.71754802376807158559 0.17216515594791442778;1.0123638903218690199 0.99843609197984450887 -0.79065346261596636257 -1.7043691041491615401 0.95251342623665891107 -0.14333642846506369772 -0.82126236193916712924 1.2754764027158445039;0.95553697494199252294 -0.6294563658955401042 1.3076814573150774557 -1.4672312740353836702 -0.95186701156290387527 0.18994624284856787 -0.76074110612977963175 1.1243964207515020348;-0.40010362406571436944 0.29342408419721816015 -1.3230819771533439688 0.37761629002224628149 2.1977460281313003776 0.26247555618756268636 -1.2691051535478188317 -1.7773171553503315234;0.8675182074279509381 0.71245206762696455804 0.7659498791343503088 0.20957508835519328416 -1.5207522215038262736 -0.14181813256609732132 1.1195493681280004328 -0.65979596657202321808;-0.65034267423681413334 -0.3150664656500566374 0.14057537730694416589 2.0610124243540504096 -0.50473690208631849519 0.1731195670612268589 -0.60624639099357457983 -1.0230337290852813403;0.18241412925052080674 0.087779028699174435624 1.5438938088227338596 0.78977959796799612757 0.32508265119501877916 -0.75941436217029212319 1.9660799372565185283 0.40603209128095407721;0.67331152529360105419 -0.38018540526112326594 -0.53049100185357445092 -1.7219624694544566346 0.1946400828525437221 0.15944600858860252801 -0.89632827937436510002 -1.1869518721546683526;1.2262919945316792525 -0.8519059019314682013 -0.30714656900116849014 -1.7162414099819172097 -1.815488879283862822 -0.63783377364360127615 -0.61923077214872601637 0.26103640742460659796;-0.6196356039898478496 0.60442606624418382388 -2.2436734421085495761 -0.049676677608288789811 -1.4179928097299214773 -0.90370228297371602011 -0.32629421772217742648 0.65577882997682035437;0.32252697796578161382 -0.72807202805432136294 -0.042313372413611279044 -0.91619623144601058939 1.7021858370847671171 0.99478698575865365239 -1.2451746730855655088 0.91790710006190545656;1.096456051202311377 -1.4870999795834705104 -0.75294080971675603209 -0.059508381815168584494 -0.32972803195413485922 -1.1896258007845916804 -0.39701241835120426593 -1.593612758006032637;0.62493152331650536624 1.2380391811887168085 -1.1645615142821024168 0.15038941182787957107 0.54101685485431205702 0.80543395033484255219 -0.51865533480925118948 0.31582449207443225037;1.2270638889033660401 0.21753092782735022892 0.30827101007917279141 1.630102578198019847 -0.77941385298096566014 -1.1378939939065455533 -0.60137289330987575564 0.41047329340761251615;1.6470893384307576657 0.30986769087697141334 0.73157779255960553311 -1.5310841128905308128 -0.96016669711267854659 -0.067534529119298317146 0.4752499333941559434 1.0994084735343252479;0.83609470077674541422 1.1872190326745815092 -0.88179121839038587805 -0.55469144862236019478 -1.0765560958455644425 -1.3040168437520773814 0.11688463714465679999 1.1104708609368070249;1.0491892378920584239 -1.6560164185465917619 -0.67346756268708773963 0.84278462637206763564 -1.0838403818066240092 0.92942969013304488346 -0.67574384592252456638 -1.5935930323626130711;1.8771284861102726094 0.77538776747715465465 1.1564104182165626522 -0.15397460475787400069 -0.61281576446866181662 -1.0734793926340406856 0.66106671500565128419 1.2874475197137060789;0.26648975542650266135 -0.37028760467113480681 0.76806904701861800078 2.1817083884614749678 -0.63713867883582209206 -1.6745344130695847262 0.65390661841534503118 0.52444982941749862526;2.4519017527464517237 -0.94135578116108475921 -0.025158133136312096217 -0.097460446880124770863 0.73415709762756609091 0.20788758023731862545 0.12098092964007098327 -0.818787382278664988;-0.70513762305333493874 1.3197858110732239023 -0.60443515141538373125 1.0799739087579682817 -1.0500507095374551625 -0.22550541159680195791 -1.0194619520065926199 0.35309321382215430596;1.146442628993372459 -1.7238877992571481901 0.009803997451967933624 -0.17252114759692022128 -0.6632116404563196399 0.4404319830550810777 -0.33021557045216176629 -1.3158778964373418763;0.63786471621763440876 0.9384244016588778603 0.036612906705144082631 -1.5634401057005316016 0.78397878653142050176 -0.89148961852833330521 0.62893795568557797626 1.0443090518464801519;-1.1056058840087574779 1.5850702257723452426 -1.1283895285797154173 -1.2414379716209638094 0.014918936175125376703 -1.2888420588226989771 1.4237827859887817183 0.40777746683305776676;-1.3181576616793322376 0.52829826036035743009 -0.70368449311615888231 1.2656306434233779434 -0.43010746734812210779 -0.29571322444280118136 1.081492490668218398 -1.6463033526512429461;-0.49091058880798116304 -1.0401790681518556791 0.33971424165430308406 1.0536922378052959726 -0.71826751559099344391 1.0032490070550692529 -0.87245322510429690333 -1.321903207611904163;-1.4351042938763065582 0.92104474510561795686 2.7153217008258550003 1.7202895503325179583 -0.44822431473259616297 -1.1964477630534084973 0.22017061230562265384 -0.48992075199852663792;1.4403985630595597112 0.41480780287394974915 -0.66095709681265568669 -1.355586576152698175 0.57826437255066343024 -1.03540233242986357 -1.6422671936275847759 -0.84296817923862266131;-0.075422469371617867351 -0.7444786847280926434 -1.2982960582859981447 0.73992243456020811987 0.68541075094695758096 1.3991624654895207236 -0.97320208705025468277 -0.73163692539313984753;1.8662883684852589194 0.30501176679251862378 1.4515755076019682956 -0.42909498061058581886 1.4891512242227922247 -1.1756136797477341194 -1.5372501476645274998 1.4834907207961949283;0.098904520865702089116 1.362109379845585444 0.24984257066562498562 -1.1704558569201819473 -0.72979081742269380495 -1.3604665605510122273 0.51689737494410592511 -0.93711002709424229273;-0.1996111729207594998 1.2143612302053758967 0.70443455527682652395 0.28358537156639757049 1.6538667996835392238 0.6236834928461519878 -0.94742612172661111458 0.92218218456647882419;-1.12605224340656207 -0.67813308110767289705 1.2384870312212405974 0.73206980512336694566 0.92947358230054544226 1.7771943544902535361 -1.1494301961411674817 1.2787216616296355198;1.4517260385791150856 1.0131948153054664008 0.72256720407432184494 -0.52756878426746356414 1.8274859581754026028 0.3906314065767810817 -0.56468724952202187239 -1.3689217011761183329;-0.061151088230044205185 0.87903164855990445492 -0.70714645977232604146 1.2217104351600887036 1.5193490666036304493 -0.97268527776328705947 -0.60477843513224760486 0.58365303669827384159;-0.63762349522332895102 0.97174574310891292939 -1.0679275183384175918 1.5551173376343248034 0.63010041592347809658 -0.80055473585280101378 0.55058422357485004017 0.84331060127366685997;-0.60737417930206294425 -1.0734401773392960866 -0.34730962296897616159 1.2965594456886975205 1.3260624532082796456 0.71201446422519454327 -1.0576245065426037595 0.39349112295203186873;-1.2010732190634270111 -0.025901395128848488103 -1.7313154760512690089 0.69943301871242824497 0.76171057555368648639 0.58685017992603127901 0.67526715246227431155 -0.52612963418595026788;-0.5839414125861134286 -0.91171143024676637445 1.572668631422716734 -0.94340818230395695476 -0.39111564357159450678 0.42472207306381770664 1.6984639917942689902 -1.1408830518888042338;0.97445743032979226239 0.054068713591192710255 -0.781987414666760694 -0.14612104600229944285 -0.66846731776884416032 -1.3075731861487374097 0.75838834353357997831 1.0273294112603488237;-0.70726316380690579244 0.2316576620698649891 -0.89697743021162779087 -1.1191657988641818822 0.83634638065312216781 1.241511366045150222 -1.0019646420336720816 -1.3192184242335456279;-0.59949785362568497327 1.1296818246034781019 -1.4521115153398107545 0.26257310276143830396 0.82135084209854547499 0.74549708790612656539 -0.092722642364914370505 -1.4859136536183590316;0.79701414551138138886 -1.0909314788729702617 1.336147464330175394 -0.96355830980444234779 0.63727608135352209473 0.36457665512761927573 -0.68465420063494397684 0.91258746053728323488;-1.0904443907265219948 -0.62989401280028034513 0.82624388728096331835 0.75683578617657520926 0.067034615957984045043 1.3303832706375648964 -1.5820056314136237141 -0.85888552108042282018;0.2656723686682790353 -1.9396461197339418536 -1.462686189779034418 0.10579267064859690373 1.2997597196770995787 -0.45441414593981699355 1.2112951964282114847 -0.15527037498744739041;-0.38373688133922495558 0.10583722507350910857 -1.7308852780605508137 1.3942288731409158142 1.613838940706645797 0.06154184349625645839 1.1749701331154989159 -0.76827789682666369764;-0.079453961813950244042 0.15584073034996503981 0.42704659149215806746 -0.28063464716307096047 1.4748183356141923994 -0.3794601366679258847 1.4897941836277599492 1.1107204768751415269;-0.87192649688421619558 -1.0432421518245869052 -0.35333469191326971615 -0.77730410082729906041 -0.995593509008788069 0.15933299180839524678 1.3560852169997903438 0.98411868170651461973];

% Layer 2
b2 = -0.037922439040420793943;
LW2_1 = [0.65913629506683546477 -0.011354086196473829606 0.71020818579304179075 -1.2844287289433524712 0.59617431419247324254 0.78669623035466373917 -0.1993261597649186867 -0.44326562352616266649 -0.086685922826455263923 -0.46666918307342458716 -0.85635596174885486587 -0.91399815157365116303 -0.67380396792953545226 -0.24178000415742920137 -1.1378648727482381098 -1.0517878195436072275 0.1673692106711874017 0.64366876235838954567 -0.4877686453377841902 -0.52577205065894072611 -0.11328008747397351474 1.4405917326869128736 0.21083528225640274512 -0.24114991176161637565 0.10780167539877198724 0.016191058644202997729 1.0375573171054190968 1.5372695660741497736 -0.12172563618135401331 1.3841600533644426996 0.59684100917271964981 0.76679417223371404422 -0.11065081307675100897 0.78454876671200357574 0.43074326536831808454 0.12424530444306426669 -0.25930464376889816869 0.15815326478291427681 -1.0694521948404631662 -0.96738656752653706672 0.5480223343939808478 1.0175839739933372208 -0.40127843384309802577 -0.54097571376626618633 0.79778344030511683105 -0.41643460938327236942 0.50003647971197728861 0.39002523266244165656 0.82781034010604737094 1.319562311853065717 -0.38048158636658729881 -0.60238434877547164525 -0.33108913845735354897 -0.32411895864008982704 -0.42248764897436685839 0.81749910469703579441 -1.3026064533033583359 0.98951191393792392592 -0.50630894405429760496 0.74355907586234470941 0.028993755987692500231 -0.68373268462789005273 -0.7748022204341774577 0.61900914961279396298 0.23568086854200684388 0.6062253496185656676 -0.71570909677220106992 -1.1975810510719144819 1.3391297812784290766 -0.60668423446129227106 -0.59149864881861491384 0.40848499467888116365 0.59296757153788171024 0.26800003323265458866 0.029586220775027413654 0.75664155161620505474 -0.62181475123341400923 -0.37390397529524554976 1.139674326441890484 -1.092881309539498913 -1.1444911862895008614 -0.42939217601430917925 0.65279673187366060727 -0.54779588132429313241 0.50406939435177211539 -1.0054980933030628343 -0.29825207543615628314 0.62347471354116579256 -1.0002362619788942588 -0.75921474188942672523 -1.3054760936402396432 0.30943859069434409559 0.64768869704703024848 -0.47777777772728524663 0.57996687844546646051 0.29166924858882709026 0.6902371322094964512 -0.073551362835815009555 -0.78661423885535941558 -0.65021165524208746067 0.37947630689263339709 -0.24290363088522864965 0.47623555420453511644 1.0177424655387909969 -0.78072458584265669312 -1.2662734142765592615 0.77706161621055735989 -0.55210831682291805489 0.24981144659949069964 -0.45209527815969785536 -0.90733809882431670779 0.56035884224914145335 -0.79791150675407973569 1.0659474750931472453 -0.57435509173558740859 0.30999846046185081105 -0.76495346282107745672 0.48710438822907070611 0.50217443239345183059 0.7405393166625959811 -0.29082523894509715312 0.039281302628740556726 0.71716271261482877897 -0.60962925142230561804 0.50033800620723078989 -0.18239356834831296772 0.22125320394195679974 -0.58538844822438729221 -0.91298474058021839017 -1.1355042970395226032 0.6471907520303890049 -1.2577749714734360875 0.61169306929927047545 0.64367716471661129418 -1.3447971434935876989 0.83667627975388758621 0.67734234391355496729 -0.30331587816285193737 -0.027506918795881393769 -0.28653077827247952492 -1.1248051592198446968 -0.69884715575494682493 0.13555097274597563417 0.43047874290766052763 -0.027795182746145796066 0.75848516857699954663 -1.042854313965044577 1.1307591557292382412 0.13545989067796485039 0.56499263186935244629];

% Output 1
y1_step1.ymin = -1;
y1_step1.gain = 0.0714285714285714;
y1_step1.xoffset = 1;

% ===== SIMULATION ========

% Dimensions
Q = size(x1,2); % samples

% Input 1
xp1 = mapminmax_apply(x1,x1_step1);

% Layer 1
a1 = tansig_apply(repmat(b1,1,Q) + IW1_1*xp1);

% Layer 2
a2 = repmat(b2,1,Q) + LW2_1*a1;

% Output 1
y1 = mapminmax_reverse(a2,y1_step1);
end

% ===== MODULE FUNCTIONS ========

% Map Minimum and Maximum Input Processing Function
function y = mapminmax_apply(x,settings)
y = bsxfun(@minus,x,settings.xoffset);
y = bsxfun(@times,y,settings.gain);
y = bsxfun(@plus,y,settings.ymin);
end

% Sigmoid Symmetric Transfer Function
function a = tansig_apply(n,~)
a = 2 ./ (1 + exp(-2*n)) - 1;
end

% Map Minimum and Maximum Output Reverse-Processing Function
function x = mapminmax_reverse(y,settings)
x = bsxfun(@minus,y,settings.ymin);
x = bsxfun(@rdivide,x,settings.gain);
x = bsxfun(@plus,x,settings.xoffset);
end
